<?xml version="1.0"?>
<opencv_storage>
<stage10>
  <maxWeakCount>4</maxWeakCount>
  <stageThreshold>-2.8931924700737000e-001</stageThreshold>
  <weakClassifiers>
    <_>
      <internalNodes>
        0 -1 13965 1440896471 -2130703977 17155167 436392194 -2105406373
        -1954004856 269507035 -355274094</internalNodes>
      <leafValues>
        -6.8888890743255615e-001 5.6363636255264282e-001</leafValues></_>
    <_>
      <internalNodes>
        0 -1 33727 -2139032617 591970883 -788459183 8556801 -2012725225
        -2096988158 578846740 -1897938301</internalNodes>
      <leafValues>
        -7.3778605461120605e-001 5.5710822343826294e-001</leafValues></_>
    <_>
      <internalNodes>
        0 -1 10755 1694564352 575676949 4114 599916633 -2147336152
        554303489 -1006464885 -272121541</internalNodes>
      <leafValues>
        -6.8759965896606445e-001 6.0023444890975952e-001</leafValues></_>
    <_>
      <internalNodes>
        0 -1 31679 1747697820 -619507696 201658641 -1324019711 33599504
        -50233344 -2004254260 -1467090689</internalNodes>
      <leafValues>
        -7.1540403366088867e-001 6.1235553026199341e-001</leafValues></_></weakClassifiers></stage10>
</opencv_storage>
